digraph Tree {
node [shape=box] ;
0 [label="X[0] <= -1.948\ngini = 0.75\nsamples = 313\nvalue = [84, 76, 77, 76]"] ;
1 [label="X[0] <= -2.068\ngini = 0.32\nsamples = 5\nvalue = [0, 0, 1, 4]"] ;
0 -> 1 [labeldistance=2.5, labelangle=45, headlabel="True"] ;
2 [label="gini = 0.0\nsamples = 1\nvalue = [0, 0, 1, 0]"] ;
1 -> 2 ;
3 [label="gini = 0.0\nsamples = 4\nvalue = [0, 0, 0, 4]"] ;
1 -> 3 ;
4 [label="X[1] <= -1.662\ngini = 0.749\nsamples = 308\nvalue = [84, 76, 76, 72]"] ;
0 -> 4 [labeldistance=2.5, labelangle=-45, headlabel="False"] ;
5 [label="X[0] <= 1.006\ngini = 0.694\nsamples = 22\nvalue = [2, 4, 8, 8]"] ;
4 -> 5 ;
6 [label="X[0] <= -0.035\ngini = 0.571\nsamples = 14\nvalue = [2, 4, 8, 0]"] ;
5 -> 6 ;
7 [label="X[0] <= -0.899\ngini = 0.444\nsamples = 6\nvalue = [2, 4, 0, 0]"] ;
6 -> 7 ;
8 [label="gini = 0.0\nsamples = 2\nvalue = [2, 0, 0, 0]"] ;
7 -> 8 ;
9 [label="gini = 0.0\nsamples = 4\nvalue = [0, 4, 0, 0]"] ;
7 -> 9 ;
10 [label="gini = 0.0\nsamples = 8\nvalue = [0, 0, 8, 0]"] ;
6 -> 10 ;
11 [label="gini = 0.0\nsamples = 8\nvalue = [0, 0, 0, 8]"] ;
5 -> 11 ;
12 [label="X[1] <= -1.604\ngini = 0.748\nsamples = 286\nvalue = [82, 72, 68, 64]"] ;
4 -> 12 ;
13 [label="X[0] <= -0.658\ngini = 0.278\nsamples = 6\nvalue = [5, 1, 0, 0]"] ;
12 -> 13 ;
14 [label="gini = 0.0\nsamples = 5\nvalue = [5, 0, 0, 0]"] ;
13 -> 14 ;
15 [label="gini = 0.0\nsamples = 1\nvalue = [0, 1, 0, 0]"] ;
13 -> 15 ;
16 [label="X[1] <= -1.587\ngini = 0.749\nsamples = 280\nvalue = [77, 71, 68, 64]"] ;
12 -> 16 ;
17 [label="gini = 0.0\nsamples = 2\nvalue = [0, 0, 2, 0]"] ;
16 -> 17 ;
18 [label="X[1] <= -0.332\ngini = 0.749\nsamples = 278\nvalue = [77, 71, 66, 64]"] ;
16 -> 18 ;
19 [label="X[0] <= -0.492\ngini = 0.736\nsamples = 97\nvalue = [26, 31, 15, 25]"] ;
18 -> 19 ;
20 [label="X[1] <= -0.974\ngini = 0.581\nsamples = 41\nvalue = [22, 5, 0, 14]"] ;
19 -> 20 ;
21 [label="X[0] <= -1.079\ngini = 0.32\nsamples = 20\nvalue = [16, 4, 0, 0]"] ;
20 -> 21 ;
22 [label="gini = 0.0\nsamples = 15\nvalue = [15, 0, 0, 0]"] ;
21 -> 22 ;
23 [label="X[0] <= -0.637\ngini = 0.32\nsamples = 5\nvalue = [1, 4, 0, 0]"] ;
21 -> 23 ;
24 [label="gini = 0.0\nsamples = 4\nvalue = [0, 4, 0, 0]"] ;
23 -> 24 ;
25 [label="gini = 0.0\nsamples = 1\nvalue = [1, 0, 0, 0]"] ;
23 -> 25 ;
26 [label="X[0] <= -0.974\ngini = 0.472\nsamples = 21\nvalue = [6, 1, 0, 14]"] ;
20 -> 26 ;
27 [label="gini = 0.0\nsamples = 14\nvalue = [0, 0, 0, 14]"] ;
26 -> 27 ;
28 [label="X[1] <= -0.946\ngini = 0.245\nsamples = 7\nvalue = [6, 1, 0, 0]"] ;
26 -> 28 ;
29 [label="gini = 0.0\nsamples = 1\nvalue = [0, 1, 0, 0]"] ;
28 -> 29 ;
30 [label="gini = 0.0\nsamples = 6\nvalue = [6, 0, 0, 0]"] ;
28 -> 30 ;
31 [label="X[0] <= 0.71\ngini = 0.669\nsamples = 56\nvalue = [4, 26, 15, 11]"] ;
19 -> 31 ;
32 [label="X[0] <= 0.222\ngini = 0.433\nsamples = 33\nvalue = [4, 24, 5, 0]"] ;
31 -> 32 ;
33 [label="X[1] <= -0.667\ngini = 0.287\nsamples = 23\nvalue = [4, 19, 0, 0]"] ;
32 -> 33 ;
34 [label="X[0] <= -0.104\ngini = 0.124\nsamples = 15\nvalue = [1, 14, 0, 0]"] ;
33 -> 34 ;
35 [label="gini = 0.0\nsamples = 11\nvalue = [0, 11, 0, 0]"] ;
34 -> 35 ;
36 [label="X[0] <= -0.085\ngini = 0.375\nsamples = 4\nvalue = [1, 3, 0, 0]"] ;
34 -> 36 ;
37 [label="gini = 0.0\nsamples = 1\nvalue = [1, 0, 0, 0]"] ;
36 -> 37 ;
38 [label="gini = 0.0\nsamples = 3\nvalue = [0, 3, 0, 0]"] ;
36 -> 38 ;
39 [label="X[0] <= 0.046\ngini = 0.469\nsamples = 8\nvalue = [3, 5, 0, 0]"] ;
33 -> 39 ;
40 [label="gini = 0.0\nsamples = 3\nvalue = [3, 0, 0, 0]"] ;
39 -> 40 ;
41 [label="gini = 0.0\nsamples = 5\nvalue = [0, 5, 0, 0]"] ;
39 -> 41 ;
42 [label="X[1] <= -0.999\ngini = 0.5\nsamples = 10\nvalue = [0, 5, 5, 0]"] ;
32 -> 42 ;
43 [label="gini = 0.0\nsamples = 5\nvalue = [0, 0, 5, 0]"] ;
42 -> 43 ;
44 [label="gini = 0.0\nsamples = 5\nvalue = [0, 5, 0, 0]"] ;
42 -> 44 ;
45 [label="X[1] <= -0.994\ngini = 0.575\nsamples = 23\nvalue = [0, 2, 10, 11]"] ;
31 -> 45 ;
46 [label="X[0] <= 0.958\ngini = 0.337\nsamples = 14\nvalue = [0, 0, 3, 11]"] ;
45 -> 46 ;
47 [label="gini = 0.0\nsamples = 3\nvalue = [0, 0, 3, 0]"] ;
46 -> 47 ;
48 [label="gini = 0.0\nsamples = 11\nvalue = [0, 0, 0, 11]"] ;
46 -> 48 ;
49 [label="X[0] <= 1.05\ngini = 0.346\nsamples = 9\nvalue = [0, 2, 7, 0]"] ;
45 -> 49 ;
50 [label="gini = 0.0\nsamples = 2\nvalue = [0, 2, 0, 0]"] ;
49 -> 50 ;
51 [label="gini = 0.0\nsamples = 7\nvalue = [0, 0, 7, 0]"] ;
49 -> 51 ;
52 [label="X[0] <= -0.228\ngini = 0.746\nsamples = 181\nvalue = [51, 40, 51, 39]"] ;
18 -> 52 ;
53 [label="X[1] <= 0.003\ngini = 0.67\nsamples = 78\nvalue = [9, 17, 38, 14]"] ;
52 -> 53 ;
54 [label="X[0] <= -1.274\ngini = 0.426\nsamples = 13\nvalue = [9, 0, 0, 4]"] ;
53 -> 54 ;
55 [label="gini = 0.0\nsamples = 3\nvalue = [0, 0, 0, 3]"] ;
54 -> 55 ;
56 [label="X[1] <= -0.142\ngini = 0.18\nsamples = 10\nvalue = [9, 0, 0, 1]"] ;
54 -> 56 ;
57 [label="gini = 0.0\nsamples = 6\nvalue = [6, 0, 0, 0]"] ;
56 -> 57 ;
58 [label="X[1] <= -0.117\ngini = 0.375\nsamples = 4\nvalue = [3, 0, 0, 1]"] ;
56 -> 58 ;
59 [label="gini = 0.0\nsamples = 1\nvalue = [0, 0, 0, 1]"] ;
58 -> 59 ;
60 [label="gini = 0.0\nsamples = 3\nvalue = [3, 0, 0, 0]"] ;
58 -> 60 ;
61 [label="X[1] <= 1.11\ngini = 0.566\nsamples = 65\nvalue = [0, 17, 38, 10]"] ;
53 -> 61 ;
62 [label="X[0] <= -0.871\ngini = 0.463\nsamples = 33\nvalue = [0, 1, 22, 10]"] ;
61 -> 62 ;
63 [label="X[0] <= -1.88\ngini = 0.234\nsamples = 23\nvalue = [0, 1, 20, 2]"] ;
62 -> 63 ;
64 [label="gini = 0.0\nsamples = 1\nvalue = [0, 1, 0, 0]"] ;
63 -> 64 ;
65 [label="X[1] <= 0.241\ngini = 0.165\nsamples = 22\nvalue = [0, 0, 20, 2]"] ;
63 -> 65 ;
66 [label="X[0] <= -1.625\ngini = 0.408\nsamples = 7\nvalue = [0, 0, 5, 2]"] ;
65 -> 66 ;
67 [label="gini = 0.0\nsamples = 1\nvalue = [0, 0, 0, 1]"] ;
66 -> 67 ;
68 [label="gini = 0.278\nsamples = 6\nvalue = [0, 0, 5, 1]"] ;
66 -> 68 ;
69 [label="gini = 0.0\nsamples = 15\nvalue = [0, 0, 15, 0]"] ;
65 -> 69 ;
70 [label="X[1] <= 0.943\ngini = 0.32\nsamples = 10\nvalue = [0, 0, 2, 8]"] ;
62 -> 70 ;
71 [label="gini = 0.0\nsamples = 8\nvalue = [0, 0, 0, 8]"] ;
70 -> 71 ;
72 [label="gini = 0.0\nsamples = 2\nvalue = [0, 0, 2, 0]"] ;
70 -> 72 ;
73 [label="X[0] <= -0.932\ngini = 0.5\nsamples = 32\nvalue = [0, 16, 16, 0]"] ;
61 -> 73 ;
74 [label="gini = 0.0\nsamples = 16\nvalue = [0, 16, 0, 0]"] ;
73 -> 74 ;
75 [label="gini = 0.0\nsamples = 16\nvalue = [0, 0, 16, 0]"] ;
73 -> 75 ;
76 [label="X[1] <= 0.087\ngini = 0.709\nsamples = 103\nvalue = [42, 23, 13, 25]"] ;
52 -> 76 ;
77 [label="X[0] <= 0.934\ngini = 0.499\nsamples = 21\nvalue = [0, 10, 11, 0]"] ;
76 -> 77 ;
78 [label="gini = 0.0\nsamples = 7\nvalue = [0, 7, 0, 0]"] ;
77 -> 78 ;
79 [label="X[1] <= -0.051\ngini = 0.337\nsamples = 14\nvalue = [0, 3, 11, 0]"] ;
77 -> 79 ;
80 [label="X[1] <= -0.088\ngini = 0.165\nsamples = 11\nvalue = [0, 1, 10, 0]"] ;
79 -> 80 ;
81 [label="gini = 0.0\nsamples = 7\nvalue = [0, 0, 7, 0]"] ;
80 -> 81 ;
82 [label="X[1] <= -0.08\ngini = 0.375\nsamples = 4\nvalue = [0, 1, 3, 0]"] ;
80 -> 82 ;
83 [label="gini = 0.0\nsamples = 1\nvalue = [0, 1, 0, 0]"] ;
82 -> 83 ;
84 [label="gini = 0.0\nsamples = 3\nvalue = [0, 0, 3, 0]"] ;
82 -> 84 ;
85 [label="X[0] <= 1.771\ngini = 0.444\nsamples = 3\nvalue = [0, 2, 1, 0]"] ;
79 -> 85 ;
86 [label="gini = 0.0\nsamples = 2\nvalue = [0, 2, 0, 0]"] ;
85 -> 86 ;
87 [label="gini = 0.0\nsamples = 1\nvalue = [0, 0, 1, 0]"] ;
85 -> 87 ;
88 [label="X[0] <= 0.89\ngini = 0.619\nsamples = 82\nvalue = [42, 13, 2, 25]"] ;
76 -> 88 ;
89 [label="X[1] <= 0.933\ngini = 0.536\nsamples = 48\nvalue = [21, 0, 2, 25]"] ;
88 -> 89 ;
90 [label="X[0] <= 0.014\ngini = 0.34\nsamples = 23\nvalue = [18, 0, 0, 5]"] ;
89 -> 90 ;
91 [label="X[1] <= 0.592\ngini = 0.278\nsamples = 6\nvalue = [1, 0, 0, 5]"] ;
90 -> 91 ;
92 [label="gini = 0.0\nsamples = 4\nvalue = [0, 0, 0, 4]"] ;
91 -> 92 ;
93 [label="X[1] <= 0.716\ngini = 0.5\nsamples = 2\nvalue = [1, 0, 0, 1]"] ;
91 -> 93 ;
94 [label="gini = 0.0\nsamples = 1\nvalue = [1, 0, 0, 0]"] ;
93 -> 94 ;
95 [label="gini = 0.0\nsamples = 1\nvalue = [0, 0, 0, 1]"] ;
93 -> 95 ;
96 [label="gini = 0.0\nsamples = 17\nvalue = [17, 0, 0, 0]"] ;
90 -> 96 ;
97 [label="X[0] <= 0.762\ngini = 0.339\nsamples = 25\nvalue = [3, 0, 2, 20]"] ;
89 -> 97 ;
98 [label="X[0] <= -0.013\ngini = 0.254\nsamples = 21\nvalue = [1, 0, 2, 18]"] ;
97 -> 98 ;
99 [label="X[0] <= -0.149\ngini = 0.667\nsamples = 3\nvalue = [1, 0, 1, 1]"] ;
98 -> 99 ;
100 [label="gini = 0.0\nsamples = 1\nvalue = [0, 0, 0, 1]"] ;
99 -> 100 ;
101 [label="gini = 0.5\nsamples = 2\nvalue = [1, 0, 1, 0]"] ;
99 -> 101 ;
102 [label="X[0] <= 0.118\ngini = 0.105\nsamples = 18\nvalue = [0, 0, 1, 17]"] ;
98 -> 102 ;
103 [label="gini = 0.375\nsamples = 4\nvalue = [0, 0, 1, 3]"] ;
102 -> 103 ;
104 [label="gini = 0.0\nsamples = 14\nvalue = [0, 0, 0, 14]"] ;
102 -> 104 ;
105 [label="X[0] <= 0.802\ngini = 0.5\nsamples = 4\nvalue = [2, 0, 0, 2]"] ;
97 -> 105 ;
106 [label="gini = 0.0\nsamples = 1\nvalue = [1, 0, 0, 0]"] ;
105 -> 106 ;
107 [label="X[0] <= 0.826\ngini = 0.444\nsamples = 3\nvalue = [1, 0, 0, 2]"] ;
105 -> 107 ;
108 [label="gini = 0.0\nsamples = 1\nvalue = [0, 0, 0, 1]"] ;
107 -> 108 ;
109 [label="gini = 0.5\nsamples = 2\nvalue = [1, 0, 0, 1]"] ;
107 -> 109 ;
110 [label="X[1] <= 1.015\ngini = 0.472\nsamples = 34\nvalue = [21, 13, 0, 0]"] ;
88 -> 110 ;
111 [label="X[0] <= 1.024\ngini = 0.133\nsamples = 14\nvalue = [1, 13, 0, 0]"] ;
110 -> 111 ;
112 [label="X[1] <= 0.619\ngini = 0.5\nsamples = 2\nvalue = [1, 1, 0, 0]"] ;
111 -> 112 ;
113 [label="gini = 0.0\nsamples = 1\nvalue = [0, 1, 0, 0]"] ;
112 -> 113 ;
114 [label="gini = 0.0\nsamples = 1\nvalue = [1, 0, 0, 0]"] ;
112 -> 114 ;
115 [label="gini = 0.0\nsamples = 12\nvalue = [0, 12, 0, 0]"] ;
111 -> 115 ;
116 [label="gini = 0.0\nsamples = 20\nvalue = [20, 0, 0, 0]"] ;
110 -> 116 ;
}